digraph Tree {
node [shape=box, style="filled, rounded", color="black", fontname="helvetica"] ;
edge [fontname="helvetica"] ;
0 [label="ip.dst.len.rte <= 0.05\ngini = 0.153\nsamples = 134\nvalue = [197, 18]\nclass = DDoS Traffic", fillcolor="#e78d4b"] ;
1 [label="ip.src.len.mean <= 8.54\ngini = 0.48\nsamples = 22\nvalue = [12, 18]\nclass = Normal Traffic", fillcolor="#bddef6"] ;
0 -> 1 [labeldistance=2.5, labelangle=45, headlabel="True"] ;
2 [label="ip.src.len.std <= 1.751\ngini = 0.18\nsamples = 14\nvalue = [2, 18]\nclass = Normal Traffic", fillcolor="#4fa8e8"] ;
1 -> 2 ;
3 [label="gini = 0.0\nsamples = 13\nvalue = [0, 18]\nclass = Normal Traffic", fillcolor="#399de5"] ;
2 -> 3 ;
4 [label="gini = 0.0\nsamples = 1\nvalue = [2, 0]\nclass = DDoS Traffic", fillcolor="#e58139"] ;
2 -> 4 ;
5 [label="gini = 0.0\nsamples = 8\nvalue = [10, 0]\nclass = DDoS Traffic", fillcolor="#e58139"] ;
1 -> 5 ;
6 [label="gini = 0.0\nsamples = 112\nvalue = [185, 0]\nclass = DDoS Traffic", fillcolor="#e58139"] ;
0 -> 6 [labeldistance=2.5, labelangle=-45, headlabel="False"] ;
}