digraph Tree {
node [shape=box, style="filled, rounded", color="black", fontname="helvetica"] ;
edge [fontname="helvetica"] ;
0 [label="ip.src.len.rte <= 0.05\ngini = 0.122\nsamples = 138\nvalue = [201, 14]\nclass = DDoS Traffic", fillcolor="#e78a47"] ;
1 [label="ip.dst.len.cv <= 0.107\ngini = 0.495\nsamples = 20\nvalue = [17, 14]\nclass = DDoS Traffic", fillcolor="#fae9dc"] ;
0 -> 1 [labeldistance=2.5, labelangle=45, headlabel="True"] ;
2 [label="gini = 0.0\nsamples = 8\nvalue = [14, 0]\nclass = DDoS Traffic", fillcolor="#e58139"] ;
1 -> 2 ;
3 [label="ip.src.len.var <= 3.617\ngini = 0.291\nsamples = 12\nvalue = [3, 14]\nclass = Normal Traffic", fillcolor="#63b2eb"] ;
1 -> 3 ;
4 [label="gini = 0.0\nsamples = 10\nvalue = [0, 14]\nclass = Normal Traffic", fillcolor="#399de5"] ;
3 -> 4 ;
5 [label="gini = 0.0\nsamples = 2\nvalue = [3, 0]\nclass = DDoS Traffic", fillcolor="#e58139"] ;
3 -> 5 ;
6 [label="gini = 0.0\nsamples = 118\nvalue = [184, 0]\nclass = DDoS Traffic", fillcolor="#e58139"] ;
0 -> 6 [labeldistance=2.5, labelangle=-45, headlabel="False"] ;
}